digraph Tree {
node [shape=box] ;
0 [label="TotalWorkingYears <= 1.5\ngini = 0.27\nsamples = 4382\nvalue = [3677, 705]"] ;
1 [label="Age <= 33.5\ngini = 0.5\nsamples = 273\nvalue = [140, 133]"] ;
0 -> 1 [labeldistance=2.5, labelangle=45, headlabel="True"] ;
2 [label="MonthlyIncome <= 112610.0\ngini = 0.495\nsamples = 237\nvalue = [107, 130]"] ;
1 -> 2 ;
3 [label="MonthlyIncome <= 23140.0\ngini = 0.473\nsamples = 201\nvalue = [77, 124]"] ;
2 -> 3 ;
4 [label="gini = 0.245\nsamples = 21\nvalue = [18, 3]"] ;
3 -> 4 ;
5 [label="gini = 0.441\nsamples = 180\nvalue = [59, 121]"] ;
3 -> 5 ;
6 [label="JobRole <= 5.0\ngini = 0.278\nsamples = 36\nvalue = [30, 6]"] ;
2 -> 6 ;
7 [label="gini = 0.0\nsamples = 21\nvalue = [21, 0]"] ;
6 -> 7 ;
8 [label="gini = 0.48\nsamples = 15\nvalue = [9, 6]"] ;
6 -> 8 ;
9 [label="MonthlyIncome <= 25425.0\ngini = 0.153\nsamples = 36\nvalue = [33, 3]"] ;
1 -> 9 ;
10 [label="Age <= 34.5\ngini = 0.5\nsamples = 6\nvalue = [3, 3]"] ;
9 -> 10 ;
11 [label="gini = 0.0\nsamples = 3\nvalue = [3, 0]"] ;
10 -> 11 ;
12 [label="gini = 0.0\nsamples = 3\nvalue = [0, 3]"] ;
10 -> 12 ;
13 [label="gini = 0.0\nsamples = 30\nvalue = [30, 0]"] ;
9 -> 13 ;
14 [label="Age <= 33.5\ngini = 0.24\nsamples = 4109\nvalue = [3537, 572]"] ;
0 -> 14 [labeldistance=2.5, labelangle=-45, headlabel="False"] ;
15 [label="NumCompaniesWorked <= 4.5\ngini = 0.315\nsamples = 1473\nvalue = [1184, 289]"] ;
14 -> 15 ;
16 [label="YearsAtCompany <= 1.5\ngini = 0.266\nsamples = 1217\nvalue = [1025, 192]"] ;
15 -> 16 ;
17 [label="gini = 0.496\nsamples = 33\nvalue = [15, 18]"] ;
16 -> 17 ;
18 [label="gini = 0.251\nsamples = 1184\nvalue = [1010, 174]"] ;
16 -> 18 ;
19 [label="NumCompaniesWorked <= 7.5\ngini = 0.471\nsamples = 256\nvalue = [159, 97]"] ;
15 -> 19 ;
20 [label="gini = 0.5\nsamples = 169\nvalue = [87, 82]"] ;
19 -> 20 ;
21 [label="gini = 0.285\nsamples = 87\nvalue = [72, 15]"] ;
19 -> 21 ;
22 [label="TotalWorkingYears <= 39.0\ngini = 0.192\nsamples = 2636\nvalue = [2353, 283]"] ;
14 -> 22 ;
23 [label="YearsWithCurrManager <= 0.5\ngini = 0.188\nsamples = 2630\nvalue = [2353, 277]"] ;
22 -> 23 ;
24 [label="gini = 0.318\nsamples = 408\nvalue = [327, 81]"] ;
23 -> 24 ;
25 [label="gini = 0.161\nsamples = 2222\nvalue = [2026, 196]"] ;
23 -> 25 ;
26 [label="gini = 0.0\nsamples = 6\nvalue = [0, 6]"] ;
22 -> 26 ;
}