digraph Tree {
node [shape=box] ;
0 [label="Income <= 113.5\ngini = 0.174\nsamples = 5000\nvalue = [4520, 480]"] ;
1 [label="CCAvg <= 2.95\ngini = 0.041\nsamples = 4021\nvalue = [3937, 84]"] ;
0 -> 1 [labeldistance=2.5, labelangle=45, headlabel="True"] ;
2 [label="Income <= 106.5\ngini = 0.007\nsamples = 3723\nvalue = [3710, 13]"] ;
1 -> 2 ;
3 [label="gini = 0.0\nsamples = 3629\nvalue = [3629, 0]"] ;
2 -> 3 ;
4 [label="Family <= 3.5\ngini = 0.238\nsamples = 94\nvalue = [81, 13]"] ;
2 -> 4 ;
5 [label="Education <= 1.5\ngini = 0.157\nsamples = 70\nvalue = [64, 6]"] ;
4 -> 5 ;
6 [label="gini = 0.0\nsamples = 41\nvalue = [41, 0]"] ;
5 -> 6 ;
7 [label="Age <= 28.5\ngini = 0.328\nsamples = 29\nvalue = [23, 6]"] ;
5 -> 7 ;
8 [label="gini = 0.0\nsamples = 1\nvalue = [0, 1]"] ;
7 -> 8 ;
9 [label="CCAvg <= 1.25\ngini = 0.293\nsamples = 28\nvalue = [23, 5]"] ;
7 -> 9 ;
10 [label="Age <= 36.5\ngini = 0.444\nsamples = 12\nvalue = [8, 4]"] ;
9 -> 10 ;
11 [label="gini = 0.0\nsamples = 2\nvalue = [0, 2]"] ;
10 -> 11 ;
12 [label="CCAvg <= 1.05\ngini = 0.32\nsamples = 10\nvalue = [8, 2]"] ;
10 -> 12 ;
13 [label="gini = 0.0\nsamples = 7\nvalue = [7, 0]"] ;
12 -> 13 ;
14 [label="CreditCard <= 0.5\ngini = 0.444\nsamples = 3\nvalue = [1, 2]"] ;
12 -> 14 ;
15 [label="gini = 0.0\nsamples = 2\nvalue = [0, 2]"] ;
14 -> 15 ;
16 [label="gini = 0.0\nsamples = 1\nvalue = [1, 0]"] ;
14 -> 16 ;
17 [label="CCAvg <= 2.725\ngini = 0.117\nsamples = 16\nvalue = [15, 1]"] ;
9 -> 17 ;
18 [label="gini = 0.0\nsamples = 14\nvalue = [14, 0]"] ;
17 -> 18 ;
19 [label="CCAvg <= 2.825\ngini = 0.5\nsamples = 2\nvalue = [1, 1]"] ;
17 -> 19 ;
20 [label="gini = 0.0\nsamples = 1\nvalue = [0, 1]"] ;
19 -> 20 ;
21 [label="gini = 0.0\nsamples = 1\nvalue = [1, 0]"] ;
19 -> 21 ;
22 [label="CCAvg <= 1.15\ngini = 0.413\nsamples = 24\nvalue = [17, 7]"] ;
4 -> 22 ;
23 [label="gini = 0.0\nsamples = 3\nvalue = [0, 3]"] ;
22 -> 23 ;
24 [label="Education <= 2.5\ngini = 0.308\nsamples = 21\nvalue = [17, 4]"] ;
22 -> 24 ;
25 [label="Age <= 35.0\ngini = 0.5\nsamples = 6\nvalue = [3, 3]"] ;
24 -> 25 ;
26 [label="gini = 0.0\nsamples = 3\nvalue = [3, 0]"] ;
25 -> 26 ;
27 [label="gini = 0.0\nsamples = 3\nvalue = [0, 3]"] ;
25 -> 27 ;
28 [label="CCAvg <= 2.45\ngini = 0.124\nsamples = 15\nvalue = [14, 1]"] ;
24 -> 28 ;
29 [label="gini = 0.0\nsamples = 14\nvalue = [14, 0]"] ;
28 -> 29 ;
30 [label="gini = 0.0\nsamples = 1\nvalue = [0, 1]"] ;
28 -> 30 ;
31 [label="CD Account <= 0.5\ngini = 0.363\nsamples = 298\nvalue = [227, 71]"] ;
1 -> 31 ;
32 [label="Income <= 92.5\ngini = 0.305\nsamples = 272\nvalue = [221, 51]"] ;
31 -> 32 ;
33 [label="Age <= 26.5\ngini = 0.176\nsamples = 174\nvalue = [157, 17]"] ;
32 -> 33 ;
34 [label="gini = 0.0\nsamples = 2\nvalue = [0, 2]"] ;
33 -> 34 ;
35 [label="CCAvg <= 3.65\ngini = 0.159\nsamples = 172\nvalue = [157, 15]"] ;
33 -> 35 ;
36 [label="Income <= 82.5\ngini = 0.254\nsamples = 87\nvalue = [74, 13]"] ;
35 -> 36 ;
37 [label="Mortgage <= 216.5\ngini = 0.148\nsamples = 62\nvalue = [57, 5]"] ;
36 -> 37 ;
38 [label="Experience <= 12.5\ngini = 0.097\nsamples = 59\nvalue = [56, 3]"] ;
37 -> 38 ;
39 [label="Education <= 1.5\ngini = 0.32\nsamples = 10\nvalue = [8, 2]"] ;
38 -> 39 ;
40 [label="gini = 0.0\nsamples = 7\nvalue = [7, 0]"] ;
39 -> 40 ;
41 [label="Income <= 63.5\ngini = 0.444\nsamples = 3\nvalue = [1, 2]"] ;
39 -> 41 ;
42 [label="gini = 0.0\nsamples = 1\nvalue = [1, 0]"] ;
41 -> 42 ;
43 [label="gini = 0.0\nsamples = 2\nvalue = [0, 2]"] ;
41 -> 43 ;
44 [label="CCAvg <= 3.45\ngini = 0.04\nsamples = 49\nvalue = [48, 1]"] ;
38 -> 44 ;
45 [label="gini = 0.0\nsamples = 34\nvalue = [34, 0]"] ;
44 -> 45 ;
46 [label="Education <= 1.5\ngini = 0.124\nsamples = 15\nvalue = [14, 1]"] ;
44 -> 46 ;
47 [label="gini = 0.0\nsamples = 1\nvalue = [0, 1]"] ;
46 -> 47 ;
48 [label="gini = 0.0\nsamples = 14\nvalue = [14, 0]"] ;
46 -> 48 ;
49 [label="Income <= 68.0\ngini = 0.444\nsamples = 3\nvalue = [1, 2]"] ;
37 -> 49 ;
50 [label="gini = 0.0\nsamples = 2\nvalue = [0, 2]"] ;
49 -> 50 ;
51 [label="gini = 0.0\nsamples = 1\nvalue = [1, 0]"] ;
49 -> 51 ;
52 [label="CCAvg <= 3.05\ngini = 0.435\nsamples = 25\nvalue = [17, 8]"] ;
36 -> 52 ;
53 [label="gini = 0.0\nsamples = 6\nvalue = [6, 0]"] ;
52 -> 53 ;
54 [label="Experience <= 23.0\ngini = 0.488\nsamples = 19\nvalue = [11, 8]"] ;
52 -> 54 ;
55 [label="Education <= 2.5\ngini = 0.32\nsamples = 10\nvalue = [8, 2]"] ;
54 -> 55 ;
56 [label="gini = 0.0\nsamples = 8\nvalue = [8, 0]"] ;
55 -> 56 ;
57 [label="gini = 0.0\nsamples = 2\nvalue = [0, 2]"] ;
55 -> 57 ;
58 [label="Family <= 3.5\ngini = 0.444\nsamples = 9\nvalue = [3, 6]"] ;
54 -> 58 ;
59 [label="gini = 0.0\nsamples = 5\nvalue = [0, 5]"] ;
58 -> 59 ;
60 [label="Education <= 1.5\ngini = 0.375\nsamples = 4\nvalue = [3, 1]"] ;
58 -> 60 ;
61 [label="gini = 0.0\nsamples = 1\nvalue = [0, 1]"] ;
60 -> 61 ;
62 [label="gini = 0.0\nsamples = 3\nvalue = [3, 0]"] ;
60 -> 62 ;
63 [label="CCAvg <= 3.9\ngini = 0.046\nsamples = 85\nvalue = [83, 2]"] ;
35 -> 63 ;
64 [label="Income <= 81.5\ngini = 0.105\nsamples = 36\nvalue = [34, 2]"] ;
63 -> 64 ;
65 [label="gini = 0.0\nsamples = 21\nvalue = [21, 0]"] ;
64 -> 65 ;
66 [label="Income <= 83.5\ngini = 0.231\nsamples = 15\nvalue = [13, 2]"] ;
64 -> 66 ;
67 [label="Age <= 45.5\ngini = 0.444\nsamples = 6\nvalue = [4, 2]"] ;
66 -> 67 ;
68 [label="gini = 0.0\nsamples = 3\nvalue = [3, 0]"] ;
67 -> 68 ;
69 [label="Family <= 3.5\ngini = 0.444\nsamples = 3\nvalue = [1, 2]"] ;
67 -> 69 ;
70 [label="gini = 0.0\nsamples = 2\nvalue = [0, 2]"] ;
69 -> 70 ;
71 [label="gini = 0.0\nsamples = 1\nvalue = [1, 0]"] ;
69 -> 71 ;
72 [label="gini = 0.0\nsamples = 9\nvalue = [9, 0]"] ;
66 -> 72 ;
73 [label="gini = 0.0\nsamples = 49\nvalue = [49, 0]"] ;
63 -> 73 ;
74 [label="Education <= 1.5\ngini = 0.453\nsamples = 98\nvalue = [64, 34]"] ;
32 -> 74 ;
75 [label="Family <= 3.5\ngini = 0.163\nsamples = 56\nvalue = [51, 5]"] ;
74 -> 75 ;
76 [label="CCAvg <= 4.5\ngini = 0.107\nsamples = 53\nvalue = [50, 3]"] ;
75 -> 76 ;
77 [label="Income <= 109.5\ngini = 0.18\nsamples = 30\nvalue = [27, 3]"] ;
76 -> 77 ;
78 [label="Income <= 108.5\ngini = 0.291\nsamples = 17\nvalue = [14, 3]"] ;
77 -> 78 ;
79 [label="CCAvg <= 4.35\ngini = 0.219\nsamples = 16\nvalue = [14, 2]"] ;
78 -> 79 ;
80 [label="CreditCard <= 0.5\ngini = 0.142\nsamples = 13\nvalue = [12, 1]"] ;
79 -> 80 ;
81 [label="gini = 0.0\nsamples = 11\nvalue = [11, 0]"] ;
80 -> 81 ;
82 [label="Income <= 99.5\ngini = 0.5\nsamples = 2\nvalue = [1, 1]"] ;
80 -> 82 ;
83 [label="gini = 0.0\nsamples = 1\nvalue = [1, 0]"] ;
82 -> 83 ;
84 [label="gini = 0.0\nsamples = 1\nvalue = [0, 1]"] ;
82 -> 84 ;
85 [label="Family <= 2.0\ngini = 0.444\nsamples = 3\nvalue = [2, 1]"] ;
79 -> 85 ;
86 [label="gini = 0.0\nsamples = 1\nvalue = [0, 1]"] ;
85 -> 86 ;
87 [label="gini = 0.0\nsamples = 2\nvalue = [2, 0]"] ;
85 -> 87 ;
88 [label="gini = 0.0\nsamples = 1\nvalue = [0, 1]"] ;
78 -> 88 ;
89 [label="gini = 0.0\nsamples = 13\nvalue = [13, 0]"] ;
77 -> 89 ;
90 [label="gini = 0.0\nsamples = 23\nvalue = [23, 0]"] ;
76 -> 90 ;
91 [label="CCAvg <= 4.15\ngini = 0.444\nsamples = 3\nvalue = [1, 2]"] ;
75 -> 91 ;
92 [label="gini = 0.0\nsamples = 2\nvalue = [0, 2]"] ;
91 -> 92 ;
93 [label="gini = 0.0\nsamples = 1\nvalue = [1, 0]"] ;
91 -> 93 ;
94 [label="Family <= 2.5\ngini = 0.427\nsamples = 42\nvalue = [13, 29]"] ;
74 -> 94 ;
95 [label="Education <= 2.5\ngini = 0.496\nsamples = 22\nvalue = [10, 12]"] ;
94 -> 95 ;
96 [label="gini = 0.0\nsamples = 5\nvalue = [0, 5]"] ;
95 -> 96 ;
97 [label="Experience <= 28.5\ngini = 0.484\nsamples = 17\nvalue = [10, 7]"] ;
95 -> 97 ;
98 [label="Age <= 31.0\ngini = 0.355\nsamples = 13\nvalue = [10, 3]"] ;
97 -> 98 ;
99 [label="gini = 0.0\nsamples = 2\nvalue = [0, 2]"] ;
98 -> 99 ;
100 [label="CCAvg <= 3.7\ngini = 0.165\nsamples = 11\nvalue = [10, 1]"] ;
98 -> 100 ;
101 [label="CreditCard <= 0.5\ngini = 0.5\nsamples = 2\nvalue = [1, 1]"] ;
100 -> 101 ;
102 [label="gini = 0.0\nsamples = 1\nvalue = [1, 0]"] ;
101 -> 102 ;
103 [label="gini = 0.0\nsamples = 1\nvalue = [0, 1]"] ;
101 -> 103 ;
104 [label="gini = 0.0\nsamples = 9\nvalue = [9, 0]"] ;
100 -> 104 ;
105 [label="gini = 0.0\nsamples = 4\nvalue = [0, 4]"] ;
97 -> 105 ;
106 [label="Age <= 60.0\ngini = 0.255\nsamples = 20\nvalue = [3, 17]"] ;
94 -> 106 ;
107 [label="gini = 0.0\nsamples = 16\nvalue = [0, 16]"] ;
106 -> 107 ;
108 [label="Family <= 3.5\ngini = 0.375\nsamples = 4\nvalue = [3, 1]"] ;
106 -> 108 ;
109 [label="gini = 0.0\nsamples = 1\nvalue = [0, 1]"] ;
108 -> 109 ;
110 [label="gini = 0.0\nsamples = 3\nvalue = [3, 0]"] ;
108 -> 110 ;
111 [label="CCAvg <= 3.85\ngini = 0.355\nsamples = 26\nvalue = [6, 20]"] ;
31 -> 111 ;
112 [label="gini = 0.0\nsamples = 11\nvalue = [0, 11]"] ;
111 -> 112 ;
113 [label="CreditCard <= 0.5\ngini = 0.48\nsamples = 15\nvalue = [6, 9]"] ;
111 -> 113 ;
114 [label="Mortgage <= 81.0\ngini = 0.245\nsamples = 7\nvalue = [1, 6]"] ;
113 -> 114 ;
115 [label="Experience <= 37.0\ngini = 0.5\nsamples = 2\nvalue = [1, 1]"] ;
114 -> 115 ;
116 [label="gini = 0.0\nsamples = 1\nvalue = [1, 0]"] ;
115 -> 116 ;
117 [label="gini = 0.0\nsamples = 1\nvalue = [0, 1]"] ;
115 -> 117 ;
118 [label="gini = 0.0\nsamples = 5\nvalue = [0, 5]"] ;
114 -> 118 ;
119 [label="Education <= 2.5\ngini = 0.469\nsamples = 8\nvalue = [5, 3]"] ;
113 -> 119 ;
120 [label="Experience <= 27.0\ngini = 0.48\nsamples = 5\nvalue = [2, 3]"] ;
119 -> 120 ;
121 [label="gini = 0.0\nsamples = 2\nvalue = [0, 2]"] ;
120 -> 121 ;
122 [label="Experience <= 38.5\ngini = 0.444\nsamples = 3\nvalue = [2, 1]"] ;
120 -> 122 ;
123 [label="gini = 0.0\nsamples = 2\nvalue = [2, 0]"] ;
122 -> 123 ;
124 [label="gini = 0.0\nsamples = 1\nvalue = [0, 1]"] ;
122 -> 124 ;
125 [label="gini = 0.0\nsamples = 3\nvalue = [3, 0]"] ;
119 -> 125 ;
126 [label="Education <= 1.5\ngini = 0.482\nsamples = 979\nvalue = [583, 396]"] ;
0 -> 126 [labeldistance=2.5, labelangle=-45, headlabel="False"] ;
127 [label="Family <= 2.5\ngini = 0.194\nsamples = 635\nvalue = [566, 69]"] ;
126 -> 127 ;
128 [label="gini = 0.0\nsamples = 566\nvalue = [566, 0]"] ;
127 -> 128 ;
129 [label="gini = 0.0\nsamples = 69\nvalue = [0, 69]"] ;
127 -> 129 ;
130 [label="Income <= 116.5\ngini = 0.094\nsamples = 344\nvalue = [17, 327]"] ;
126 -> 130 ;
131 [label="CCAvg <= 2.15\ngini = 0.491\nsamples = 30\nvalue = [17, 13]"] ;
130 -> 131 ;
132 [label="CCAvg <= 0.55\ngini = 0.26\nsamples = 13\nvalue = [11, 2]"] ;
131 -> 132 ;
133 [label="gini = 0.0\nsamples = 1\nvalue = [0, 1]"] ;
132 -> 133 ;
134 [label="Experience <= 21.5\ngini = 0.153\nsamples = 12\nvalue = [11, 1]"] ;
132 -> 134 ;
135 [label="gini = 0.0\nsamples = 7\nvalue = [7, 0]"] ;
134 -> 135 ;
136 [label="Age <= 57.0\ngini = 0.32\nsamples = 5\nvalue = [4, 1]"] ;
134 -> 136 ;
137 [label="gini = 0.0\nsamples = 1\nvalue = [0, 1]"] ;
136 -> 137 ;
138 [label="gini = 0.0\nsamples = 4\nvalue = [4, 0]"] ;
136 -> 138 ;
139 [label="Experience <= 35.5\ngini = 0.457\nsamples = 17\nvalue = [6, 11]"] ;
131 -> 139 ;
140 [label="Mortgage <= 141.5\ngini = 0.337\nsamples = 14\nvalue = [3, 11]"] ;
139 -> 140 ;
141 [label="Experience <= 22.5\ngini = 0.26\nsamples = 13\nvalue = [2, 11]"] ;
140 -> 141 ;
142 [label="gini = 0.0\nsamples = 8\nvalue = [0, 8]"] ;
141 -> 142 ;
143 [label="Family <= 2.5\ngini = 0.48\nsamples = 5\nvalue = [2, 3]"] ;
141 -> 143 ;
144 [label="Family <= 1.5\ngini = 0.444\nsamples = 3\nvalue = [2, 1]"] ;
143 -> 144 ;
145 [label="gini = 0.0\nsamples = 1\nvalue = [0, 1]"] ;
144 -> 145 ;
146 [label="gini = 0.0\nsamples = 2\nvalue = [2, 0]"] ;
144 -> 146 ;
147 [label="gini = 0.0\nsamples = 2\nvalue = [0, 2]"] ;
143 -> 147 ;
148 [label="gini = 0.0\nsamples = 1\nvalue = [1, 0]"] ;
140 -> 148 ;
149 [label="gini = 0.0\nsamples = 3\nvalue = [3, 0]"] ;
139 -> 149 ;
150 [label="gini = 0.0\nsamples = 314\nvalue = [0, 314]"] ;
130 -> 150 ;
}