digraph Tree {
node [shape=box] ;
0 [label="Income <= 113.5\ngini = 0.174\nsamples = 5000\nvalue = [4520, 480]"] ;
1 [label="CCAvg <= 2.95\ngini = 0.041\nsamples = 4021\nvalue = [3937, 84]"] ;
0 -> 1 [labeldistance=2.5, labelangle=45, headlabel="True"] ;
2 [label="Income <= 106.5\ngini = 0.007\nsamples = 3723\nvalue = [3710, 13]"] ;
1 -> 2 ;
3 [label="gini = 0.0\nsamples = 3629\nvalue = [3629, 0]"] ;
2 -> 3 ;
4 [label="Family <= 3.5\ngini = 0.238\nsamples = 94\nvalue = [81, 13]"] ;
2 -> 4 ;
5 [label="Education <= 1.5\ngini = 0.157\nsamples = 70\nvalue = [64, 6]"] ;
4 -> 5 ;
6 [label="gini = 0.0\nsamples = 41\nvalue = [41, 0]"] ;
5 -> 6 ;
7 [label="CCAvg <= 1.65\ngini = 0.328\nsamples = 29\nvalue = [23, 6]"] ;
5 -> 7 ;
8 [label="Family <= 1.5\ngini = 0.43\nsamples = 16\nvalue = [11, 5]"] ;
7 -> 8 ;
9 [label="Education <= 2.5\ngini = 0.198\nsamples = 9\nvalue = [8, 1]"] ;
8 -> 9 ;
10 [label="CCAvg <= 0.95\ngini = 0.5\nsamples = 2\nvalue = [1, 1]"] ;
9 -> 10 ;
11 [label="gini = 0.0\nsamples = 1\nvalue = [1, 0]"] ;
10 -> 11 ;
12 [label="gini = 0.0\nsamples = 1\nvalue = [0, 1]"] ;
10 -> 12 ;
13 [label="gini = 0.0\nsamples = 7\nvalue = [7, 0]"] ;
9 -> 13 ;
14 [label="Income <= 111.5\ngini = 0.49\nsamples = 7\nvalue = [3, 4]"] ;
8 -> 14 ;
15 [label="CCAvg <= 1.35\ngini = 0.48\nsamples = 5\nvalue = [3, 2]"] ;
14 -> 15 ;
16 [label="Income <= 108.5\ngini = 0.444\nsamples = 3\nvalue = [1, 2]"] ;
15 -> 16 ;
17 [label="gini = 0.0\nsamples = 1\nvalue = [1, 0]"] ;
16 -> 17 ;
18 [label="gini = 0.0\nsamples = 2\nvalue = [0, 2]"] ;
16 -> 18 ;
19 [label="gini = 0.0\nsamples = 2\nvalue = [2, 0]"] ;
15 -> 19 ;
20 [label="gini = 0.0\nsamples = 2\nvalue = [0, 2]"] ;
14 -> 20 ;
21 [label="Education <= 2.5\ngini = 0.142\nsamples = 13\nvalue = [12, 1]"] ;
7 -> 21 ;
22 [label="gini = 0.0\nsamples = 11\nvalue = [11, 0]"] ;
21 -> 22 ;
23 [label="CCAvg <= 2.825\ngini = 0.5\nsamples = 2\nvalue = [1, 1]"] ;
21 -> 23 ;
24 [label="gini = 0.0\nsamples = 1\nvalue = [0, 1]"] ;
23 -> 24 ;
25 [label="gini = 0.0\nsamples = 1\nvalue = [1, 0]"] ;
23 -> 25 ;
26 [label="Education <= 1.5\ngini = 0.413\nsamples = 24\nvalue = [17, 7]"] ;
4 -> 26 ;
27 [label="gini = 0.0\nsamples = 3\nvalue = [0, 3]"] ;
26 -> 27 ;
28 [label="CCAvg <= 1.15\ngini = 0.308\nsamples = 21\nvalue = [17, 4]"] ;
26 -> 28 ;
29 [label="gini = 0.0\nsamples = 1\nvalue = [0, 1]"] ;
28 -> 29 ;
30 [label="CCAvg <= 2.45\ngini = 0.255\nsamples = 20\nvalue = [17, 3]"] ;
28 -> 30 ;
31 [label="Education <= 2.5\ngini = 0.188\nsamples = 19\nvalue = [17, 2]"] ;
30 -> 31 ;
32 [label="Income <= 112.5\ngini = 0.48\nsamples = 5\nvalue = [3, 2]"] ;
31 -> 32 ;
33 [label="CCAvg <= 1.85\ngini = 0.375\nsamples = 4\nvalue = [3, 1]"] ;
32 -> 33 ;
34 [label="gini = 0.0\nsamples = 2\nvalue = [2, 0]"] ;
33 -> 34 ;
35 [label="Income <= 108.5\ngini = 0.5\nsamples = 2\nvalue = [1, 1]"] ;
33 -> 35 ;
36 [label="gini = 0.0\nsamples = 1\nvalue = [0, 1]"] ;
35 -> 36 ;
37 [label="gini = 0.0\nsamples = 1\nvalue = [1, 0]"] ;
35 -> 37 ;
38 [label="gini = 0.0\nsamples = 1\nvalue = [0, 1]"] ;
32 -> 38 ;
39 [label="gini = 0.0\nsamples = 14\nvalue = [14, 0]"] ;
31 -> 39 ;
40 [label="gini = 0.0\nsamples = 1\nvalue = [0, 1]"] ;
30 -> 40 ;
41 [label="CD Account <= 0.5\ngini = 0.363\nsamples = 298\nvalue = [227, 71]"] ;
1 -> 41 ;
42 [label="Income <= 92.5\ngini = 0.305\nsamples = 272\nvalue = [221, 51]"] ;
41 -> 42 ;
43 [label="CCAvg <= 3.65\ngini = 0.176\nsamples = 174\nvalue = [157, 17]"] ;
42 -> 43 ;
44 [label="Income <= 82.5\ngini = 0.268\nsamples = 88\nvalue = [74, 14]"] ;
43 -> 44 ;
45 [label="CCAvg <= 3.15\ngini = 0.172\nsamples = 63\nvalue = [57, 6]"] ;
44 -> 45 ;
46 [label="Income <= 70.0\ngini = 0.287\nsamples = 23\nvalue = [19, 4]"] ;
45 -> 46 ;
47 [label="Family <= 2.5\ngini = 0.48\nsamples = 10\nvalue = [6, 4]"] ;
46 -> 47 ;
48 [label="gini = 0.0\nsamples = 2\nvalue = [0, 2]"] ;
47 -> 48 ;
49 [label="Income <= 63.5\ngini = 0.375\nsamples = 8\nvalue = [6, 2]"] ;
47 -> 49 ;
50 [label="gini = 0.0\nsamples = 5\nvalue = [5, 0]"] ;
49 -> 50 ;
51 [label="Education <= 1.5\ngini = 0.444\nsamples = 3\nvalue = [1, 2]"] ;
49 -> 51 ;
52 [label="gini = 0.0\nsamples = 1\nvalue = [1, 0]"] ;
51 -> 52 ;
53 [label="gini = 0.0\nsamples = 2\nvalue = [0, 2]"] ;
51 -> 53 ;
54 [label="gini = 0.0\nsamples = 13\nvalue = [13, 0]"] ;
46 -> 54 ;
55 [label="Income <= 74.5\ngini = 0.095\nsamples = 40\nvalue = [38, 2]"] ;
45 -> 55 ;
56 [label="gini = 0.0\nsamples = 23\nvalue = [23, 0]"] ;
55 -> 56 ;
57 [label="Family <= 3.0\ngini = 0.208\nsamples = 17\nvalue = [15, 2]"] ;
55 -> 57 ;
58 [label="Family <= 1.5\ngini = 0.375\nsamples = 8\nvalue = [6, 2]"] ;
57 -> 58 ;
59 [label="gini = 0.0\nsamples = 3\nvalue = [3, 0]"] ;
58 -> 59 ;
60 [label="CCAvg <= 3.3\ngini = 0.48\nsamples = 5\nvalue = [3, 2]"] ;
58 -> 60 ;
61 [label="gini = 0.0\nsamples = 3\nvalue = [3, 0]"] ;
60 -> 61 ;
62 [label="gini = 0.0\nsamples = 2\nvalue = [0, 2]"] ;
60 -> 62 ;
63 [label="gini = 0.0\nsamples = 9\nvalue = [9, 0]"] ;
57 -> 63 ;
64 [label="CCAvg <= 3.05\ngini = 0.435\nsamples = 25\nvalue = [17, 8]"] ;
44 -> 64 ;
65 [label="gini = 0.0\nsamples = 6\nvalue = [6, 0]"] ;
64 -> 65 ;
66 [label="Education <= 2.5\ngini = 0.488\nsamples = 19\nvalue = [11, 8]"] ;
64 -> 66 ;
67 [label="Income <= 83.5\ngini = 0.408\nsamples = 14\nvalue = [10, 4]"] ;
66 -> 67 ;
68 [label="Family <= 3.0\ngini = 0.375\nsamples = 4\nvalue = [1, 3]"] ;
67 -> 68 ;
69 [label="gini = 0.0\nsamples = 2\nvalue = [0, 2]"] ;
68 -> 69 ;
70 [label="CCAvg <= 3.25\ngini = 0.5\nsamples = 2\nvalue = [1, 1]"] ;
68 -> 70 ;
71 [label="gini = 0.0\nsamples = 1\nvalue = [0, 1]"] ;
70 -> 71 ;
72 [label="gini = 0.0\nsamples = 1\nvalue = [1, 0]"] ;
70 -> 72 ;
73 [label="CCAvg <= 3.5\ngini = 0.18\nsamples = 10\nvalue = [9, 1]"] ;
67 -> 73 ;
74 [label="gini = 0.0\nsamples = 8\nvalue = [8, 0]"] ;
73 -> 74 ;
75 [label="Income <= 87.0\ngini = 0.5\nsamples = 2\nvalue = [1, 1]"] ;
73 -> 75 ;
76 [label="gini = 0.0\nsamples = 1\nvalue = [1, 0]"] ;
75 -> 76 ;
77 [label="gini = 0.0\nsamples = 1\nvalue = [0, 1]"] ;
75 -> 77 ;
78 [label="CCAvg <= 3.5\ngini = 0.32\nsamples = 5\nvalue = [1, 4]"] ;
66 -> 78 ;
79 [label="gini = 0.0\nsamples = 3\nvalue = [0, 3]"] ;
78 -> 79 ;
80 [label="gini = 0.5\nsamples = 2\nvalue = [1, 1]"] ;
78 -> 80 ;
81 [label="CCAvg <= 3.95\ngini = 0.067\nsamples = 86\nvalue = [83, 3]"] ;
43 -> 81 ;
82 [label="CCAvg <= 3.85\ngini = 0.149\nsamples = 37\nvalue = [34, 3]"] ;
81 -> 82 ;
83 [label="Income <= 81.5\ngini = 0.105\nsamples = 36\nvalue = [34, 2]"] ;
82 -> 83 ;
84 [label="gini = 0.0\nsamples = 21\nvalue = [21, 0]"] ;
83 -> 84 ;
85 [label="Income <= 83.5\ngini = 0.231\nsamples = 15\nvalue = [13, 2]"] ;
83 -> 85 ;
86 [label="Education <= 2.5\ngini = 0.444\nsamples = 6\nvalue = [4, 2]"] ;
85 -> 86 ;
87 [label="Family <= 3.5\ngini = 0.444\nsamples = 3\nvalue = [1, 2]"] ;
86 -> 87 ;
88 [label="gini = 0.0\nsamples = 2\nvalue = [0, 2]"] ;
87 -> 88 ;
89 [label="gini = 0.0\nsamples = 1\nvalue = [1, 0]"] ;
87 -> 89 ;
90 [label="gini = 0.0\nsamples = 3\nvalue = [3, 0]"] ;
86 -> 90 ;
91 [label="gini = 0.0\nsamples = 9\nvalue = [9, 0]"] ;
85 -> 91 ;
92 [label="gini = 0.0\nsamples = 1\nvalue = [0, 1]"] ;
82 -> 92 ;
93 [label="gini = 0.0\nsamples = 49\nvalue = [49, 0]"] ;
81 -> 93 ;
94 [label="Education <= 1.5\ngini = 0.453\nsamples = 98\nvalue = [64, 34]"] ;
42 -> 94 ;
95 [label="Family <= 3.5\ngini = 0.163\nsamples = 56\nvalue = [51, 5]"] ;
94 -> 95 ;
96 [label="CCAvg <= 4.5\ngini = 0.107\nsamples = 53\nvalue = [50, 3]"] ;
95 -> 96 ;
97 [label="Income <= 109.5\ngini = 0.18\nsamples = 30\nvalue = [27, 3]"] ;
96 -> 97 ;
98 [label="Income <= 108.5\ngini = 0.291\nsamples = 17\nvalue = [14, 3]"] ;
97 -> 98 ;
99 [label="CCAvg <= 4.35\ngini = 0.219\nsamples = 16\nvalue = [14, 2]"] ;
98 -> 99 ;
100 [label="Family <= 1.5\ngini = 0.142\nsamples = 13\nvalue = [12, 1]"] ;
99 -> 100 ;
101 [label="gini = 0.0\nsamples = 8\nvalue = [8, 0]"] ;
100 -> 101 ;
102 [label="CCAvg <= 3.5\ngini = 0.32\nsamples = 5\nvalue = [4, 1]"] ;
100 -> 102 ;
103 [label="gini = 0.0\nsamples = 4\nvalue = [4, 0]"] ;
102 -> 103 ;
104 [label="gini = 0.0\nsamples = 1\nvalue = [0, 1]"] ;
102 -> 104 ;
105 [label="Income <= 100.0\ngini = 0.444\nsamples = 3\nvalue = [2, 1]"] ;
99 -> 105 ;
106 [label="gini = 0.0\nsamples = 1\nvalue = [0, 1]"] ;
105 -> 106 ;
107 [label="gini = 0.0\nsamples = 2\nvalue = [2, 0]"] ;
105 -> 107 ;
108 [label="gini = 0.0\nsamples = 1\nvalue = [0, 1]"] ;
98 -> 108 ;
109 [label="gini = 0.0\nsamples = 13\nvalue = [13, 0]"] ;
97 -> 109 ;
110 [label="gini = 0.0\nsamples = 23\nvalue = [23, 0]"] ;
96 -> 110 ;
111 [label="CCAvg <= 4.15\ngini = 0.444\nsamples = 3\nvalue = [1, 2]"] ;
95 -> 111 ;
112 [label="gini = 0.0\nsamples = 2\nvalue = [0, 2]"] ;
111 -> 112 ;
113 [label="gini = 0.0\nsamples = 1\nvalue = [1, 0]"] ;
111 -> 113 ;
114 [label="Family <= 2.5\ngini = 0.427\nsamples = 42\nvalue = [13, 29]"] ;
94 -> 114 ;
115 [label="Education <= 2.5\ngini = 0.496\nsamples = 22\nvalue = [10, 12]"] ;
114 -> 115 ;
116 [label="gini = 0.0\nsamples = 5\nvalue = [0, 5]"] ;
115 -> 116 ;
117 [label="CCAvg <= 4.3\ngini = 0.484\nsamples = 17\nvalue = [10, 7]"] ;
115 -> 117 ;
118 [label="Income <= 100.0\ngini = 0.48\nsamples = 10\nvalue = [4, 6]"] ;
117 -> 118 ;
119 [label="CCAvg <= 3.95\ngini = 0.48\nsamples = 5\nvalue = [3, 2]"] ;
118 -> 119 ;
120 [label="Family <= 1.5\ngini = 0.5\nsamples = 4\nvalue = [2, 2]"] ;
119 -> 120 ;
121 [label="CCAvg <= 3.45\ngini = 0.444\nsamples = 3\nvalue = [1, 2]"] ;
120 -> 121 ;
122 [label="Income <= 97.0\ngini = 0.5\nsamples = 2\nvalue = [1, 1]"] ;
121 -> 122 ;
123 [label="gini = 0.0\nsamples = 1\nvalue = [1, 0]"] ;
122 -> 123 ;
124 [label="gini = 0.0\nsamples = 1\nvalue = [0, 1]"] ;
122 -> 124 ;
125 [label="gini = 0.0\nsamples = 1\nvalue = [0, 1]"] ;
121 -> 125 ;
126 [label="gini = 0.0\nsamples = 1\nvalue = [1, 0]"] ;
120 -> 126 ;
127 [label="gini = 0.0\nsamples = 1\nvalue = [1, 0]"] ;
119 -> 127 ;
128 [label="CCAvg <= 3.7\ngini = 0.32\nsamples = 5\nvalue = [1, 4]"] ;
118 -> 128 ;
129 [label="gini = 0.0\nsamples = 2\nvalue = [0, 2]"] ;
128 -> 129 ;
130 [label="CCAvg <= 3.85\ngini = 0.444\nsamples = 3\nvalue = [1, 2]"] ;
128 -> 130 ;
131 [label="gini = 0.0\nsamples = 1\nvalue = [1, 0]"] ;
130 -> 131 ;
132 [label="gini = 0.0\nsamples = 2\nvalue = [0, 2]"] ;
130 -> 132 ;
133 [label="CCAvg <= 4.65\ngini = 0.245\nsamples = 7\nvalue = [6, 1]"] ;
117 -> 133 ;
134 [label="gini = 0.0\nsamples = 6\nvalue = [6, 0]"] ;
133 -> 134 ;
135 [label="gini = 0.0\nsamples = 1\nvalue = [0, 1]"] ;
133 -> 135 ;
136 [label="CCAvg <= 3.45\ngini = 0.255\nsamples = 20\nvalue = [3, 17]"] ;
114 -> 136 ;
137 [label="Education <= 2.5\ngini = 0.48\nsamples = 5\nvalue = [3, 2]"] ;
136 -> 137 ;
138 [label="CCAvg <= 3.2\ngini = 0.375\nsamples = 4\nvalue = [3, 1]"] ;
137 -> 138 ;
139 [label="gini = 0.0\nsamples = 1\nvalue = [0, 1]"] ;
138 -> 139 ;
140 [label="gini = 0.0\nsamples = 3\nvalue = [3, 0]"] ;
138 -> 140 ;
141 [label="gini = 0.0\nsamples = 1\nvalue = [0, 1]"] ;
137 -> 141 ;
142 [label="gini = 0.0\nsamples = 15\nvalue = [0, 15]"] ;
136 -> 142 ;
143 [label="CCAvg <= 3.85\ngini = 0.355\nsamples = 26\nvalue = [6, 20]"] ;
41 -> 143 ;
144 [label="gini = 0.0\nsamples = 11\nvalue = [0, 11]"] ;
143 -> 144 ;
145 [label="Education <= 2.5\ngini = 0.48\nsamples = 15\nvalue = [6, 9]"] ;
143 -> 145 ;
146 [label="Income <= 92.0\ngini = 0.397\nsamples = 11\nvalue = [3, 8]"] ;
145 -> 146 ;
147 [label="gini = 0.0\nsamples = 3\nvalue = [0, 3]"] ;
146 -> 147 ;
148 [label="Income <= 93.5\ngini = 0.469\nsamples = 8\nvalue = [3, 5]"] ;
146 -> 148 ;
149 [label="gini = 0.0\nsamples = 1\nvalue = [1, 0]"] ;
148 -> 149 ;
150 [label="CCAvg <= 4.45\ngini = 0.408\nsamples = 7\nvalue = [2, 5]"] ;
148 -> 150 ;
151 [label="CCAvg <= 4.25\ngini = 0.48\nsamples = 5\nvalue = [2, 3]"] ;
150 -> 151 ;
152 [label="Income <= 106.0\ngini = 0.375\nsamples = 4\nvalue = [1, 3]"] ;
151 -> 152 ;
153 [label="gini = 0.0\nsamples = 3\nvalue = [0, 3]"] ;
152 -> 153 ;
154 [label="gini = 0.0\nsamples = 1\nvalue = [1, 0]"] ;
152 -> 154 ;
155 [label="gini = 0.0\nsamples = 1\nvalue = [1, 0]"] ;
151 -> 155 ;
156 [label="gini = 0.0\nsamples = 2\nvalue = [0, 2]"] ;
150 -> 156 ;
157 [label="Income <= 107.0\ngini = 0.375\nsamples = 4\nvalue = [3, 1]"] ;
145 -> 157 ;
158 [label="gini = 0.0\nsamples = 3\nvalue = [3, 0]"] ;
157 -> 158 ;
159 [label="gini = 0.0\nsamples = 1\nvalue = [0, 1]"] ;
157 -> 159 ;
160 [label="Education <= 1.5\ngini = 0.482\nsamples = 979\nvalue = [583, 396]"] ;
0 -> 160 [labeldistance=2.5, labelangle=-45, headlabel="False"] ;
161 [label="Family <= 2.5\ngini = 0.194\nsamples = 635\nvalue = [566, 69]"] ;
160 -> 161 ;
162 [label="gini = 0.0\nsamples = 566\nvalue = [566, 0]"] ;
161 -> 162 ;
163 [label="gini = 0.0\nsamples = 69\nvalue = [0, 69]"] ;
161 -> 163 ;
164 [label="Income <= 116.5\ngini = 0.094\nsamples = 344\nvalue = [17, 327]"] ;
160 -> 164 ;
165 [label="CCAvg <= 2.15\ngini = 0.491\nsamples = 30\nvalue = [17, 13]"] ;
164 -> 165 ;
166 [label="CCAvg <= 0.55\ngini = 0.26\nsamples = 13\nvalue = [11, 2]"] ;
165 -> 166 ;
167 [label="gini = 0.0\nsamples = 1\nvalue = [0, 1]"] ;
166 -> 167 ;
168 [label="CCAvg <= 1.1\ngini = 0.153\nsamples = 12\nvalue = [11, 1]"] ;
166 -> 168 ;
169 [label="gini = 0.0\nsamples = 7\nvalue = [7, 0]"] ;
168 -> 169 ;
170 [label="Family <= 1.5\ngini = 0.32\nsamples = 5\nvalue = [4, 1]"] ;
168 -> 170 ;
171 [label="gini = 0.0\nsamples = 1\nvalue = [0, 1]"] ;
170 -> 171 ;
172 [label="gini = 0.0\nsamples = 4\nvalue = [4, 0]"] ;
170 -> 172 ;
173 [label="CCAvg <= 4.0\ngini = 0.457\nsamples = 17\nvalue = [6, 11]"] ;
165 -> 173 ;
174 [label="CCAvg <= 3.35\ngini = 0.497\nsamples = 13\nvalue = [6, 7]"] ;
173 -> 174 ;
175 [label="CCAvg <= 2.8\ngini = 0.444\nsamples = 9\nvalue = [3, 6]"] ;
174 -> 175 ;
176 [label="CCAvg <= 2.3\ngini = 0.5\nsamples = 6\nvalue = [3, 3]"] ;
175 -> 176 ;
177 [label="gini = 0.0\nsamples = 1\nvalue = [0, 1]"] ;
176 -> 177 ;
178 [label="Education <= 2.5\ngini = 0.48\nsamples = 5\nvalue = [3, 2]"] ;
176 -> 178 ;
179 [label="gini = 0.0\nsamples = 2\nvalue = [2, 0]"] ;
178 -> 179 ;
180 [label="Family <= 2.5\ngini = 0.444\nsamples = 3\nvalue = [1, 2]"] ;
178 -> 180 ;
181 [label="gini = 0.0\nsamples = 2\nvalue = [0, 2]"] ;
180 -> 181 ;
182 [label="gini = 0.0\nsamples = 1\nvalue = [1, 0]"] ;
180 -> 182 ;
183 [label="gini = 0.0\nsamples = 3\nvalue = [0, 3]"] ;
175 -> 183 ;
184 [label="Income <= 114.5\ngini = 0.375\nsamples = 4\nvalue = [3, 1]"] ;
174 -> 184 ;
185 [label="gini = 0.0\nsamples = 2\nvalue = [2, 0]"] ;
184 -> 185 ;
186 [label="CCAvg <= 3.6\ngini = 0.5\nsamples = 2\nvalue = [1, 1]"] ;
184 -> 186 ;
187 [label="gini = 0.0\nsamples = 1\nvalue = [1, 0]"] ;
186 -> 187 ;
188 [label="gini = 0.0\nsamples = 1\nvalue = [0, 1]"] ;
186 -> 188 ;
189 [label="gini = 0.0\nsamples = 4\nvalue = [0, 4]"] ;
173 -> 189 ;
190 [label="gini = 0.0\nsamples = 314\nvalue = [0, 314]"] ;
164 -> 190 ;
}